Language model created by QuickLM on Sat Mar 14 07:36:24 EDT 2015
Copyright (c) 1996-2010 Carnegie Mellon University and Alexander I. Rudnicky

The model is in standard ARPA format, designed by Doug Paul while he was at MITRE.

The code that was used to produce this language model is available in Open Source.
Please visit http://www.speech.cs.cmu.edu/tools/ for more information

The (fixed) discount mass is 0.5. The backoffs are computed using the ratio method.
This model based on a corpus of 5 sentences and 7 words

\data\
ngram 1=7
ngram 2=10
ngram 3=5

\1-grams:
-0.7782 </s> -0.3010
-0.7782 <s> -0.2218
-1.4771 CENTER -0.2218
-1.4771 DOOR -0.2218
-1.4771 GAP -0.2218
-1.4771 OFFICE -0.2218
-1.4771 STOP -0.2218

\2-grams:
-1.0000 <s> CENTER 0.0000
-1.0000 <s> DOOR 0.0000
-1.0000 <s> GAP 0.0000
-1.0000 <s> OFFICE 0.0000
-1.0000 <s> STOP 0.0000
-0.3010 CENTER </s> -0.3010
-0.3010 DOOR </s> -0.3010
-0.3010 GAP </s> -0.3010
-0.3010 OFFICE </s> -0.3010
-0.3010 STOP </s> -0.3010

\3-grams:
-0.3010 <s> CENTER </s>
-0.3010 <s> DOOR </s>
-0.3010 <s> GAP </s>
-0.3010 <s> OFFICE </s>
-0.3010 <s> STOP </s>

\end\
